{
  "weights": {
    "conv1d": {
      "bias": [
        0.015551800839602947,
        -0.07765365391969681,
        -0.025667395442724228,
        0.011457068845629692,
        -0.16476911306381226,
        0.09050775319337845,
        -0.123301662504673,
        0.1117476150393486,
        -0.19017496705055237,
        0.06401783972978592,
        0.03763960301876068,
        -0.009987443685531616,
        -0.10070393234491348,
        -0.061920490115880966,
        0.1485065221786499,
        -0.07346991449594498,
        0.018479766324162483,
        -0.00598100433126092,
        0.2410242259502411,
        0.01243749912828207,
        -0.0721173956990242,
        -0.08767933398485184,
        -0.06913198530673981,
        0.06226466968655586,
        -0.38777852058410645,
        -0.08315539360046387,
        0.08756540715694427,
        0.01745285838842392,
        0.0889393612742424,
        -0.40991634130477905,
        -0.24945029616355896,
        -0.1827358901500702
      ],
      "kernel": [
        [
          [
            0.26224830746650696,
            0.6612629890441895,
            -0.039316482841968536,
            -0.667901337146759,
            0.11402729153633118,
            -0.8239156603813171,
            -0.319856733083725,
            0.1037602573633194,
            -0.5016732215881348,
            -0.6642512083053589,
            -0.6568805575370789,
            0.12854354083538055,
            -0.2095833569765091,
            0.49669134616851807,
            -1.1479171514511108,
            0.23906965553760529,
            -0.4728730618953705,
            -1.5670883655548096,
            -0.9887955188751221,
            0.6776531338691711,
            0.42186281085014343,
            0.00043261205428279936,
            -0.15182574093341827,
            0.1773250550031662,
            0.05069706216454506,
            -1.5399513244628906,
            -1.069769024848938,
            0.6268738508224487,
            -0.06541044265031815,
            0.22242142260074615,
            0.14255282282829285,
            0.1086169183254242
          ]
        ],
        [
          [
            -0.9441116452217102,
            -0.2869742214679718,
            -0.04965797811746597,
            -0.04276055842638016,
            0.0018957739230245352,
            -0.1708032190799713,
            0.07676409929990768,
            -0.7474257946014404,
            -0.32185181975364685,
            -0.42345303297042847,
            0.3147801160812378,
            -0.60472571849823,
            0.008009735494852066,
            0.2317519634962082,
            -1.5179359912872314,
            0.28793981671333313,
            0.8343330025672913,
            0.882656991481781,
            -0.8784609436988831,
            -0.06267579644918442,
            -0.036442045122385025,
            -0.24324658513069153,
            0.35639727115631104,
            0.03048037737607956,
            0.49661025404930115,
            -1.3295507431030273,
            -0.16869401931762695,
            -0.8950058221817017,
            -0.8768820762634277,
            0.5853755474090576,
            -0.23371924459934235,
            0.14780449867248535
          ]
        ],
        [
          [
            0.3065388798713684,
            -0.47619515657424927,
            0.004965622443705797,
            0.7174927592277527,
            -0.006652002222836018,
            0.5762995481491089,
            0.005341785494238138,
            -0.23472733795642853,
            0.24403943121433258,
            0.6000367999076843,
            0.27284595370292664,
            -2.1340019702911377,
            0.013438863679766655,
            -0.1335119903087616,
            -0.6407396793365479,
            0.08265068382024765,
            -0.4500277638435364,
            -0.43171632289886475,
            -0.5200458765029907,
            -0.6733659505844116,
            -0.11832747608423233,
            -0.24389700591564178,
            0.536590039730072,
            -0.5319474339485168,
            0.024942640215158463,
            -1.116780400276184,
            -1.000829815864563,
            -1.322737693786621,
            -1.0312418937683105,
            0.07513483613729477,
            -0.11490946263074875,
            -0.22277024388313293
          ]
        ]
      ]
    },
    "conv1d_1": {
      "bias": [
        -0.06473550200462341,
        0.07786863297224045,
        -0.29465919733047485,
        0.24685974419116974,
        0.16649547219276428,
        -0.21235047280788422,
        0.05966433510184288,
        0.03020819090306759,
        -0.059466272592544556,
        0.06655748933553696,
        -0.19117385149002075,
        0.05693574622273445,
        -0.051735348999500275,
        0.14995795488357544,
        0.027691783383488655,
        0.2317720502614975,
        0.06452840566635132,
        -0.1613762527704239,
        0.07558969408273697,
        -0.15431956946849823,
        -0.013323737308382988,
        -0.0710388720035553,
        0.13732470571994781,
        -0.7617219686508179,
        0.040958572179079056,
        0.19164443016052246,
        0.02886415831744671,
        -0.10787542909383774,
        -0.423002153635025,
        -0.05710303783416748,
        -0.05185139179229736,
        0.2668144702911377,
        0.0016302914591506124,
        -0.37626200914382935,
        -0.05687861889600754,
        0.02616308443248272,
        -0.0013653712812811136,
        0.05148916691541672,
        0.08961641043424606,
        -0.23167160153388977,
        -0.41464897990226746,
        0.1818021982908249,
        -0.14020505547523499,
        0.06966178119182587,
        -0.22646750509738922,
        0.01678258366882801,
        0.04047991335391998,
        -0.03280147910118103,
        0.3117285668849945,
        -0.28673410415649414,
        -0.0691143274307251,
        0.005830233916640282,
        0.3451476991176605,
        -0.12076178938150406,
        -0.0847163125872612,
        -0.27179020643234253,
        -0.008357060141861439,
        0.019894275814294815,
        -0.24959154427051544,
        -0.12995979189872742,
        -0.527180552482605,
        -0.00345797766931355,
        0.05222516506910324,
        0.13789603114128113
      ],
      "kernel": [
        [
          [
            -0.027583492919802666,
            -0.032594699412584305,
            0.8294938206672668,
            0.13447539508342743,
            0.03151005506515503,
            0.05069893226027489,
            -0.32342657446861267,
            0.04497060552239418,
            0.4926886260509491,
            -0.09310905635356903,
            0.19770745933055878,
            -0.11534465849399567,
            -0.11569610983133316,
            0.09615593403577805,
            -0.09828756004571915,
            0.3364618122577667,
            0.09379980713129044,
            -0.056197453290224075,
            -0.1098402887582779,
            -0.11622375249862671,
            0.2487122267484665,
            -0.51421058177948,
            -0.19822104275226593,
            -0.2377920150756836,
            0.5536324977874756,
            -0.5809907913208008,
            -0.07451051473617554,
            0.0741318091750145,
            -0.8719472885131836,
            -0.37712979316711426,
            0.031378746032714844,
            -0.4232499897480011,
            -0.09882267564535141,
            0.034791700541973114,
            -0.038111601024866104,
            0.2629224359989166,
            0.01386207528412342,
            -0.04225257784128189,
            0.3849729001522064,
            -0.31098222732543945,
            0.04228157922625542,
            -0.1336737722158432,
            0.5756879448890686,
            0.17412373423576355,
            -0.5960590839385986,
            0.6429750919342041,
            -0.21557104587554932,
            -0.6648789048194885,
            -0.5370752811431885,
            0.38090354204177856,
            -0.0977867990732193,
            -0.06666174530982971,
            0.34710925817489624,
            0.10806956142187119,
            -0.3307204842567444,
            -0.06663065403699875,
            0.4043315351009369,
            0.2709818184375763,
            -1.1220958232879639,
            0.5485036969184875,
            0.38444626331329346,
            -0.4493098556995392,
            1.0664223432540894,
            -0.13313472270965576
          ],
          [
            -0.016038618981838226,
            -1.3868839740753174,
            0.47286662459373474,
            0.26310500502586365,
            -0.6023134589195251,
            -0.16154183447360992,
            0.4150438904762268,
            -0.13361766934394836,
            -0.04503918066620827,
            -0.3466331958770752,
            0.04035130515694618,
            -0.9878718256950378,
            0.03495412692427635,
            -0.7882492542266846,
            -0.38126567006111145,
            -0.07306034862995148,
            -0.2043365091085434,
            -0.1695871502161026,
            0.1327660232782364,
            0.1153593435883522,
            -0.17547859251499176,
            -1.9958570003509521,
            -0.03902458772063255,
            0.8867372274398804,
            -0.31547293066978455,
            -0.21039468050003052,
            0.33245015144348145,
            -0.8177781701087952,
            0.09329117089509964,
            -1.1235219240188599,
            -0.13892769813537598,
            -1.4808913469314575,
            -0.9735761284828186,
            -0.8080904483795166,
            -0.04804360121488571,
            -0.2083153873682022,
            0.25680074095726013,
            0.22172053158283234,
            -0.4244787096977234,
            -0.5481913685798645,
            0.4139177203178406,
            -0.7049342393875122,
            0.0010040252236649394,
            -0.2614871561527252,
            -0.28821229934692383,
            -0.1736564040184021,
            -0.22690805792808533,
            0.25397729873657227,
            -1.2124625444412231,
            0.8867172598838806,
            -0.08906996250152588,
            0.05033232644200325,
            0.308561235666275,
            -0.1249619573354721,
            0.4664996862411499,
            0.2785801291465759,
            0.1503586769104004,
            0.18553072214126587,
            -0.7202509045600891,
            0.40828579664230347,
            0.1612352579832077,
            -0.5562472343444824,
            0.2543945610523224,
            -1.1214438676834106
          ],
          [
            -0.061921484768390656,
            0.07946108281612396,
            -0.13909141719341278,
            -0.09100726991891861,
            -0.06328511983156204,
            0.0040289838798344135,
            -0.021099671721458435,
            -0.03803180158138275,
            -0.05897940695285797,
            0.12830133736133575,
            -0.12450961023569107,
            0.09031393378973007,
            0.06606395542621613,
            0.028386635705828667,
            0.03588244318962097,
            -0.012806196697056293,
            0.13068744540214539,
            -0.01768077351152897,
            -0.0013359910808503628,
            0.04434327781200409,
            0.05116269737482071,
            0.1035454273223877,
            -0.1397506445646286,
            -0.024110393598675728,
            -0.08671826124191284,
            -0.057649195194244385,
            -0.1080130934715271,
            0.04403255879878998,
            0.011829379945993423,
            -0.02480175346136093,
            0.07060640305280685,
            -0.11209065467119217,
            0.0018398512620478868,
            0.13216309249401093,
            0.12440668046474457,
            -0.13666574656963348,
            0.03738504648208618,
            -0.09868910163640976,
            -0.04033308103680611,
            -0.07161187380552292,
            0.0022180809173732996,
            0.13296450674533844,
            0.03747960180044174,
            -0.1268252581357956,
            0.018167022615671158,
            -0.09725441038608551,
            0.06993554532527924,
            0.12486463040113449,
            -0.03987092152237892,
            -0.08075021952390671,
            -0.11297596246004105,
            -0.09317900985479355,
            -0.02306968905031681,
            -0.051173824816942215,
            0.007550996262580156,
            -0.08484810590744019,
            0.010623450390994549,
            -0.010678411461412907,
            -0.009327240288257599,
            -0.06398709118366241,
            0.055936556309461594,
            0.013310164213180542,
            -0.09672737121582031,
            -0.04532504081726074
          ],
          [
            -0.12074712663888931,
            0.278705894947052,
            -0.6351034641265869,
            -0.5913225412368774,
            -0.3596988320350647,
            -0.47619161009788513,
            0.08421733230352402,
            -0.12202057987451553,
            0.34578144550323486,
            0.2384655624628067,
            -0.12424926459789276,
            -0.07600725442171097,
            -0.12879160046577454,
            -1.1161386966705322,
            -0.1436745822429657,
            0.07786155492067337,
            0.2863956391811371,
            0.11286245286464691,
            -0.288312703371048,
            0.17281579971313477,
            0.025452598929405212,
            0.6906577348709106,
            0.19659090042114258,
            0.13717328011989594,
            -0.005544083658605814,
            -0.7442935109138489,
            0.2332492172718048,
            -0.8878602981567383,
            -0.1552714854478836,
            -0.08823734521865845,
            -0.13483470678329468,
            -0.1453070342540741,
            0.6057305932044983,
            0.14031316339969635,
            -0.041996993124485016,
            0.1654619574546814,
            0.030836287885904312,
            0.3644493818283081,
            -0.44404566287994385,
            -1.3196167945861816,
            -0.683466911315918,
            -0.018931042402982712,
            0.15373913943767548,
            -0.5020346641540527,
            -0.29686233401298523,
            -1.2655315399169922,
            -0.35308292508125305,
            0.8196964263916016,
            0.02390172705054283,
            0.5735085010528564,
            0.045740578323602676,
            -0.18362458050251007,
            -0.31150487065315247,
            0.009202812798321247,
            -0.9682356119155884,
            -0.03611885383725166,
            -0.28911545872688293,
            -0.2375466227531433,
            -0.7504260540008545,
            0.4181816875934601,
            0.5412445068359375,
            -0.4593195617198944,
            0.3383650779724121,
            -0.7422515153884888
          ],
          [
            -0.06308364123106003,
            -0.1939496546983719,
            -0.16846227645874023,
            0.06728824228048325,
            -0.047954533249139786,
            0.1347990781068802,
            -0.09798356890678406,
            -0.2706281840801239,
            -0.12822392582893372,
            -0.287134051322937,
            -0.020421186462044716,
            -0.02419186756014824,
            -0.11276597529649734,
            0.051608856767416,
            -0.007168781012296677,
            0.08465442061424255,
            -0.010000385344028473,
            -0.16717593371868134,
            -0.04376814514398575,
            -0.054381489753723145,
            -0.04953152686357498,
            -0.0923406332731247,
            -0.19774340093135834,
            0.25413018465042114,
            0.08404382318258286,
            0.16258296370506287,
            -0.1307031214237213,
            0.08234155923128128,
            0.1928243786096573,
            -0.09557264298200607,
            -0.14134879410266876,
            -0.24607810378074646,
            -0.07117825746536255,
            -0.45676103234291077,
            0.07408744841814041,
            -0.23440033197402954,
            0.04569293186068535,
            -0.12369755655527115,
            0.21047331392765045,
            0.12308582663536072,
            0.14273978769779205,
            -0.10747640579938889,
            0.07519357651472092,
            0.1891424059867859,
            0.03706442937254906,
            0.07153446972370148,
            -0.24473102390766144,
            -0.17543013393878937,
            -0.0941956639289856,
            0.1353113055229187,
            -0.040141552686691284,
            0.14614573121070862,
            -0.07281854748725891,
            0.12292551249265671,
            0.28627580404281616,
            0.07007194310426712,
            0.11506715416908264,
            0.17214523255825043,
            0.06258777529001236,
            0.14497341215610504,
            -0.08532986789941788,
            -0.22343185544013977,
            -0.06426216661930084,
            -0.21128757297992706
          ],
          [
            -0.019372213631868362,
            -0.012789987027645111,
            -0.6909725666046143,
            -0.39047667384147644,
            -0.583540141582489,
            -0.09772532433271408,
            0.3144465684890747,
            -0.20917454361915588,
            0.7213245034217834,
            0.3851424753665924,
            -0.3956550359725952,
            0.24516038596630096,
            0.07019755989313126,
            -1.3577332496643066,
            -0.809132993221283,
            0.018920613452792168,
            0.7434414625167847,
            0.17586812376976013,
            0.11909695714712143,
            0.44342324137687683,
            0.578893780708313,
            0.30523550510406494,
            0.3778994381427765,
            0.6555904746055603,
            -0.7434769868850708,
            -0.41923224925994873,
            0.2991105616092682,
            -0.35696250200271606,
            0.028319332748651505,
            -0.9666576981544495,
            0.09672856330871582,
            -0.2723912000656128,
            0.11873698234558105,
            0.22686713933944702,
            -0.003009763080626726,
            0.26009172201156616,
            -0.7216804623603821,
            0.17586006224155426,
            -0.08242692053318024,
            -0.7088870406150818,
            -0.7555131912231445,
            -0.77549809217453,
            0.27832290530204773,
            -0.9681569337844849,
            -0.876707136631012,
            -1.0901811122894287,
            -0.6427860260009766,
            0.8154515624046326,
            -0.14961092174053192,
            0.33784008026123047,
            -0.09725718200206757,
            -0.11907824873924255,
            -0.2265201359987259,
            0.41667744517326355,
            -0.7359843850135803,
            -0.2278299629688263,
            -0.4431816637516022,
            0.22659020125865936,
            -1.0713915824890137,
            -0.16285847127437592,
            0.8735999464988708,
            -0.906866729259491,
            0.8546959161758423,
            -0.45851796865463257
          ],
          [
            0.13875553011894226,
            0.33976665139198303,
            0.05121259391307831,
            -0.22450748085975647,
            0.22054965794086456,
            0.23346400260925293,
            0.1255529671907425,
            -0.3777184784412384,
            0.09584864228963852,
            -0.04356342926621437,
            0.2002013772726059,
            -0.10981288552284241,
            0.02940056100487709,
            0.25303706526756287,
            0.12152282893657684,
            0.19817230105400085,
            0.1289762407541275,
            0.09373173117637634,
            -0.3301929831504822,
            0.41414210200309753,
            -0.27099668979644775,
            0.17332500219345093,
            -0.17211028933525085,
            0.1725606918334961,
            0.12672506272792816,
            0.004296646919101477,
            -0.2696399390697479,
            0.09807002544403076,
            -0.13319066166877747,
            0.029135506600141525,
            -0.08582525700330734,
            0.07291834056377411,
            0.26086166501045227,
            -0.24253717064857483,
            -0.07287905365228653,
            -0.030356403440237045,
            0.21870176494121552,
            -0.04638272151350975,
            0.16035062074661255,
            -0.27040380239486694,
            -0.1857849657535553,
            -0.05316897854208946,
            -0.16469678282737732,
            0.3009432554244995,
            -0.23731617629528046,
            0.09131314605474472,
            -0.16498419642448425,
            0.05983391031622887,
            -0.2255006730556488,
            -0.17433606088161469,
            -0.061503030359745026,
            0.012561214156448841,
            -0.14757196605205536,
            -0.0854029506444931,
            0.2830372452735901,
            -0.034616947174072266,
            -0.2640377879142761,
            -0.0007415369036607444,
            0.0317038930952549,
            -0.14259906113147736,
            0.2707843780517578,
            -0.3520355224609375,
            0.051504019647836685,
            -0.13201741874217987
          ],
          [
            -0.08193100243806839,
            0.12222522497177124,
            0.5309306383132935,
            0.20947754383087158,
            -0.5312938094139099,
            -0.13953761756420135,
            0.08499250560998917,
            0.07227384299039841,
            0.6688478589057922,
            -0.0564190149307251,
            0.32549911737442017,
            -0.2806455194950104,
            -0.12239851802587509,
            -0.1038585975766182,
            -0.10556697100400925,
            -0.15723808109760284,
            0.431252121925354,
            0.10182371735572815,
            -0.08766430616378784,
            0.25828155875205994,
            0.6496142745018005,
            -0.22653432190418243,
            0.34978529810905457,
            0.09920258820056915,
            -0.1173880323767662,
            -0.46339094638824463,
            0.4786847233772278,
            -0.07795550674200058,
            -0.6474297046661377,
            -0.4316808581352234,
            -0.0941871777176857,
            -0.39883336424827576,
            -0.6426573991775513,
            0.33563271164894104,
            -0.05734465643763542,
            0.12517951428890228,
            -0.046593740582466125,
            -0.22848312556743622,
            -0.3029065430164337,
            -0.4008612334728241,
            0.6473755240440369,
            -0.3869636058807373,
            0.33572956919670105,
            -0.36418187618255615,
            -0.47265705466270447,
            0.12368706613779068,
            -0.7697758674621582,
            -1.1414015293121338,
            -0.2675243616104126,
            -0.017338305711746216,
            0.07603615522384644,
            0.20255114138126373,
            -0.15724582970142365,
            -0.09557255357503891,
            0.013525589369237423,
            0.37579402327537537,
            0.32332274317741394,
            0.29207858443260193,
            -0.8679440021514893,
            0.7902154922485352,
            0.5377277731895447,
            -0.5482614040374756,
            0.7644374966621399,
            -0.5299275517463684
          ],
          [
            -0.16412101686000824,
            -0.2730250358581543,
            -0.35220009088516235,
            -0.4389563500881195,
            -0.08413299173116684,
            -0.25845566391944885,
            0.07879915088415146,
            -0.30911487340927124,
            0.2688324451446533,
            -0.07542446255683899,
            -0.21579580008983612,
            -0.2679682970046997,
            -0.10770954936742783,
            -0.3366265296936035,
            0.01540379598736763,
            0.08209586143493652,
            0.3843863308429718,
            -0.0648423507809639,
            0.010030832141637802,
            0.2902706563472748,
            -0.08247276395559311,
            0.07508334517478943,
            -0.35209956765174866,
            0.1180676743388176,
            -0.1739826649427414,
            -0.31965288519859314,
            0.09723213315010071,
            -0.20546841621398926,
            -0.26567840576171875,
            -0.35388872027397156,
            -0.11434919387102127,
            -0.013647235929965973,
            0.4210849702358246,
            -0.18298889696598053,
            0.031580857932567596,
            0.15009140968322754,
            0.04933243617415428,
            -0.08555885404348373,
            0.004461272154003382,
            -0.8200896978378296,
            -0.5537063479423523,
            0.1809663027524948,
            0.2647866904735565,
            -0.45253971219062805,
            -0.4808090627193451,
            -0.7811010479927063,
            -0.5972052812576294,
            0.4131975769996643,
            -0.04203054681420326,
            0.20264440774917603,
            0.03593258559703827,
            0.3509719669818878,
            0.07932920753955841,
            0.14526553452014923,
            -0.8178128004074097,
            -0.24920178949832916,
            0.14042611420154572,
            0.050533849745988846,
            -0.35190021991729736,
            -0.029518239200115204,
            0.30324679613113403,
            -0.3274485468864441,
            0.17162646353244781,
            -0.6151602268218994
          ],
          [
            -0.11964552849531174,
            -0.1778648942708969,
            -0.4669831693172455,
            -0.39706742763519287,
            -0.6331145763397217,
            -0.20582474768161774,
            0.36884215474128723,
            -0.35479989647865295,
            0.6179195642471313,
            0.257933646440506,
            -0.06974402815103531,
            0.11111315339803696,
            -0.08473918586969376,
            -1.1230049133300781,
            -0.5808117389678955,
            0.19345900416374207,
            0.6740777492523193,
            -0.05158914998173714,
            0.03673751279711723,
            0.1736074537038803,
            0.47888675332069397,
            0.17720715701580048,
            0.10390891879796982,
            0.6019259691238403,
            -1.057698369026184,
            -0.3252049386501312,
            0.143959641456604,
            -0.30674275755882263,
            0.14805585145950317,
            -1.093522548675537,
            -0.19914893805980682,
            -0.29919493198394775,
            -0.10932731628417969,
            0.25567907094955444,
            0.08151968568563461,
            0.27811896800994873,
            -0.4554113447666168,
            0.016711492091417313,
            -0.01039060391485691,
            -0.5703019499778748,
            -0.7176260948181152,
            -0.8164204359054565,
            0.5810397863388062,
            -0.895057737827301,
            -1.1512736082077026,
            -0.7394528388977051,
            -0.7886354923248291,
            0.5482438802719116,
            -0.205403134226799,
            -0.07693848758935928,
            0.03193621709942818,
            -0.029171884059906006,
            -0.029974356293678284,
            0.49941495060920715,
            -0.5376003980636597,
            -0.25115498900413513,
            -0.250812292098999,
            0.3974177837371826,
            -1.0131559371948242,
            -0.37622323632240295,
            0.8516186475753784,
            -0.6847028136253357,
            0.9255760312080383,
            -0.6732850670814514
          ],
          [
            0.048154134303331375,
            0.4399058520793915,
            -0.2856334149837494,
            -0.585452675819397,
            -0.34495699405670166,
            -0.06991875916719437,
            0.09889969229698181,
            -0.12933358550071716,
            0.25763776898384094,
            0.41090619564056396,
            0.0251011960208416,
            -0.16286610066890717,
            0.08376501500606537,
            -0.6516343355178833,
            0.042889125645160675,
            -0.14382299780845642,
            0.3308323323726654,
            0.07534870505332947,
            -0.5523011088371277,
            0.5220634341239929,
            0.05189425125718117,
            0.5562366843223572,
            0.23841889202594757,
            0.19799235463142395,
            0.23125946521759033,
            -0.8695179224014282,
            -0.018982883542776108,
            -0.7305121421813965,
            -0.22169166803359985,
            -0.021970022469758987,
            0.05930228531360626,
            -0.20450547337532043,
            0.5530080795288086,
            -0.01603567600250244,
            -0.14885972440242767,
            0.10531383752822876,
            -0.0872400552034378,
            0.4644913971424103,
            -0.07004575431346893,
            -1.5388191938400269,
            -0.9451068043708801,
            0.11067473143339157,
            -0.11888694018125534,
            -0.193349689245224,
            -0.2736111581325531,
            -0.8916295766830444,
            -0.6033681035041809,
            0.9730457067489624,
            -0.03731907159090042,
            0.48482999205589294,
            -0.15397192537784576,
            -0.802489161491394,
            0.10352405160665512,
            0.019344575703144073,
            -0.7674059867858887,
            -0.45672181248664856,
            -0.09300137311220169,
            -0.33061519265174866,
            -0.09639450907707214,
            0.2022802233695984,
            0.6413488984107971,
            -0.6647376418113708,
            0.5312286615371704,
            -0.6598548889160156
          ],
          [
            -0.026718754321336746,
            0.0713077262043953,
            0.01149949710816145,
            -0.09759923815727234,
            -0.32724112272262573,
            -0.3566869795322418,
            -0.19644945859909058,
            0.10245386511087418,
            -0.47139641642570496,
            -0.35139647126197815,
            -0.005860868375748396,
            -0.07091847062110901,
            -0.0705040991306305,
            -0.2572166323661804,
            -0.03477080911397934,
            -0.11268598586320877,
            -0.25046610832214355,
            -0.23630376160144806,
            -0.2828410565853119,
            0.08290513604879379,
            -0.3934129476547241,
            -0.5732827186584473,
            0.3121148645877838,
            -0.3896690905094147,
            -0.2208600640296936,
            0.6324316263198853,
            -0.39533567428588867,
            -0.32244983315467834,
            -0.726595938205719,
            -0.15275657176971436,
            -0.00933446642011404,
            0.3614964187145233,
            0.010965981520712376,
            0.10681921988725662,
            -0.11363877356052399,
            0.4138001501560211,
            -0.10469263046979904,
            0.19880034029483795,
            0.08299421519041061,
            -0.31028783321380615,
            -0.24797981977462769,
            -0.21273817121982574,
            -0.28492000699043274,
            -0.30667737126350403,
            0.07717477530241013,
            0.6190375089645386,
            0.6942247748374939,
            -0.18428558111190796,
            -1.4524832963943481,
            0.25569531321525574,
            0.08728545159101486,
            -0.6110811829566956,
            -1.5005922317504883,
            -0.2906832993030548,
            -0.3486984074115753,
            -0.45586323738098145,
            -0.16061855852603912,
            0.4624709188938141,
            -0.29058995842933655,
            -0.17761899530887604,
            -0.12054714560508728,
            -0.3453309237957001,
            -0.05111166834831238,
            -0.09636777639389038
          ],
          [
            0.11517935246229172,
            -0.06623898446559906,
            0.04003000259399414,
            -0.1009821742773056,
            -0.029597094282507896,
            0.2847999036312103,
            -0.10797452181577682,
            -0.16066503524780273,
            0.15649688243865967,
            -0.014427450485527515,
            0.03780273348093033,
            -0.08197232335805893,
            -0.05208218842744827,
            0.19336658716201782,
            0.09747740626335144,
            -0.18501843512058258,
            0.07993963360786438,
            -0.022585805505514145,
            -0.1073964312672615,
            0.2530136704444885,
            -0.08115582168102264,
            0.0474434457719326,
            0.05712214857339859,
            0.06618119776248932,
            0.2092752754688263,
            -0.10421932488679886,
            -0.14140278100967407,
            0.12509998679161072,
            0.04766599461436272,
            -0.23898571729660034,
            -0.18380139768123627,
            0.027942659333348274,
            0.13465866446495056,
            -0.08196605741977692,
            0.005487993359565735,
            0.10531842708587646,
            0.04232216998934746,
            0.00013877786113880575,
            0.15571674704551697,
            -0.2621771991252899,
            -0.2726251482963562,
            0.11653032153844833,
            -0.04508461058139801,
            0.04273205250501633,
            0.08250398933887482,
            0.0029419036582112312,
            -0.2968214750289917,
            0.24453292787075043,
            -0.2278592884540558,
            0.20001420378684998,
            0.056472040712833405,
            -0.19498741626739502,
            0.0006726550636813045,
            0.19864718616008759,
            -0.1381121724843979,
            -0.3020622134208679,
            -0.003926594741642475,
            -0.18868020176887512,
            0.021765075623989105,
            -0.054098330438137054,
            0.08036378026008606,
            -0.22857238352298737,
            0.26616525650024414,
            -0.04542503133416176
          ],
          [
            -0.08311323076486588,
            0.051148660480976105,
            0.24045974016189575,
            0.11783195286989212,
            0.2263987958431244,
            0.4004491865634918,
            -1.178571343421936,
            -0.6847186088562012,
            -0.4126669466495514,
            -1.0497812032699585,
            0.31357452273368835,
            -0.04258967936038971,
            0.0798213928937912,
            0.273796021938324,
            0.15725481510162354,
            0.3122166693210602,
            -0.5002259612083435,
            -0.11308558285236359,
            0.05644084885716438,
            -0.36554813385009766,
            -0.35335320234298706,
            -0.2562309503555298,
            -0.544689416885376,
            0.40829992294311523,
            -0.008806565776467323,
            0.5040408372879028,
            -0.6230747103691101,
            0.05133398622274399,
            0.49165579676628113,
            0.04445536434650421,
            0.04070800915360451,
            -0.480850487947464,
            0.24724139273166656,
            -2.4922733306884766,
            0.06332357972860336,
            -0.39386093616485596,
            0.4935382604598999,
            -0.7625131011009216,
            0.034739717841148376,
            0.004616754129528999,
            0.2529981732368469,
            0.21421518921852112,
            -0.08311276137828827,
            0.15682773292064667,
            0.13240814208984375,
            0.1637982577085495,
            -0.2770541310310364,
            -0.4326801300048828,
            -0.7246404886245728,
            0.29198527336120605,
            0.035624366253614426,
            0.15231437981128693,
            -0.26590585708618164,
            -0.2512490153312683,
            0.1868412345647812,
            0.44713303446769714,
            0.5174758434295654,
            0.4797704517841339,
            0.2323286235332489,
            0.13063393533229828,
            -0.20583629608154297,
            -0.1410861611366272,
            0.3224352300167084,
            0.23494671285152435
          ],
          [
            0.04239623248577118,
            -0.513548731803894,
            0.4560539424419403,
            -0.4913102686405182,
            -0.8935791850090027,
            -0.038539737462997437,
            0.07347236573696136,
            -0.2591717839241028,
            -0.3189844489097595,
            -0.5570384860038757,
            -0.19348688423633575,
            -0.29174408316612244,
            -0.11218658089637756,
            -0.1569122076034546,
            -0.1170460432767868,
            -0.44710996747016907,
            -0.10660420358181,
            -0.06627620756626129,
            0.09264528751373291,
            0.03154362365603447,
            -0.5762461423873901,
            -0.30156320333480835,
            -0.3625555634498596,
            -0.11768978834152222,
            -0.6197280287742615,
            -0.47979456186294556,
            -0.23637081682682037,
            0.5973930954933167,
            0.12583208084106445,
            0.10008957237005234,
            -0.10722307115793228,
            -0.37028056383132935,
            0.024882353842258453,
            0.05091845244169235,
            -0.13302397727966309,
            0.02673034742474556,
            -0.4169500768184662,
            -0.46846869587898254,
            -0.36469972133636475,
            -0.11928185820579529,
            -0.09590490162372589,
            -0.9061693549156189,
            -0.8902131915092468,
            0.09007594734430313,
            0.0278710275888443,
            -0.11396995931863785,
            0.0728423148393631,
            -1.3019379377365112,
            0.11801359802484512,
            0.17761363089084625,
            -0.05695343017578125,
            -0.9180629849433899,
            -0.53184574842453,
            -0.9096291065216064,
            -0.14882463216781616,
            -0.23467454314231873,
            -0.0811251699924469,
            -0.0960322916507721,
            0.4760418236255646,
            -0.06687355041503906,
            0.013312765397131443,
            -0.5110181570053101,
            -0.0960710346698761,
            -0.031471867114305496
          ],
          [
            -0.03207794949412346,
            0.1810067892074585,
            0.005992837715893984,
            0.05800579488277435,
            0.2986573278903961,
            0.28269776701927185,
            -0.6993570923805237,
            -0.6675818562507629,
            -0.33076784014701843,
            -0.6477808356285095,
            0.10372991114854813,
            0.11622223258018494,
            0.06319937109947205,
            0.44628140330314636,
            0.3085947632789612,
            0.10595176368951797,
            -0.41764527559280396,
            -0.14100892841815948,
            -0.06459800153970718,
            -0.22822053730487823,
            -0.17954948544502258,
            -0.1637778878211975,
            -0.6113813519477844,
            0.36010363698005676,
            0.19353994727134705,
            0.5179023742675781,
            -0.6177247166633606,
            0.19239093363285065,
            0.36721834540367126,
            0.28078001737594604,
            -0.1355043649673462,
            -0.35502690076828003,
            0.0207603070884943,
            -1.5018583536148071,
            -0.051249634474515915,
            -0.471358984708786,
            0.3685394823551178,
            -0.3965243399143219,
            0.12548843026161194,
            0.03344264253973961,
            0.023667236790060997,
            0.1451089084148407,
            -0.4875074625015259,
            0.40067002177238464,
            0.12231800705194473,
            0.32391661405563354,
            -0.3110640347003937,
            -0.4244164526462555,
            -0.6374294757843018,
            0.21516358852386475,
            -0.08750630170106888,
            -0.03601723536849022,
            -0.25106486678123474,
            0.03736770525574684,
            0.32471963763237,
            0.2527812421321869,
            0.42508047819137573,
            0.282901793718338,
            0.2069884091615677,
            0.11615675687789917,
            -0.07897533476352692,
            -0.006704205647110939,
            0.10726486146450043,
            0.06095946580171585
          ],
          [
            0.05068352445960045,
            0.894402027130127,
            0.1886991262435913,
            -1.267738938331604,
            0.17277191579341888,
            -0.2297629714012146,
            -0.7916669845581055,
            0.010191612876951694,
            0.5090619921684265,
            0.001771933981217444,
            -0.14784963428974152,
            -0.6703553199768066,
            -0.15110674500465393,
            0.11333595961332321,
            0.12318825721740723,
            0.13953395187854767,
            0.7367028594017029,
            -0.13042403757572174,
            -0.23429137468338013,
            0.5580498576164246,
            -1.0750740766525269,
            -0.8288277983665466,
            0.38992464542388916,
            0.1983962208032608,
            0.046688929200172424,
            -1.4806230068206787,
            -0.4748833179473877,
            -0.08104158937931061,
            -0.46377336978912354,
            -0.12623080611228943,
            -0.06994957476854324,
            0.6396619081497192,
            0.5087684988975525,
            -0.2755078971385956,
            -0.0030767100397497416,
            0.06584817171096802,
            -0.463310182094574,
            0.8236039876937866,
            0.1634499430656433,
            -0.8049091696739197,
            -0.5924521684646606,
            -0.17913123965263367,
            -0.2856731414794922,
            -0.43636247515678406,
            -0.33746299147605896,
            -0.24750572443008423,
            -0.24534447491168976,
            0.32495030760765076,
            -0.6516864895820618,
            -0.14674310386180878,
            -0.09267889708280563,
            -1.4781874418258667,
            0.6599705219268799,
            0.03967711701989174,
            -0.3064509928226471,
            -0.908453106880188,
            0.14893004298210144,
            -0.7770030498504639,
            -0.6852192282676697,
            -0.8367373943328857,
            -0.042761143296957016,
            -0.8547787666320801,
            0.09013940393924713,
            -0.5003829002380371
          ],
          [
            0.05892564728856087,
            -0.6728779673576355,
            -0.5190668106079102,
            -0.3456767201423645,
            0.7017441987991333,
            0.346529096364975,
            -0.08797714114189148,
            0.36952435970306396,
            0.09249478578567505,
            -0.2988385260105133,
            -0.12293277680873871,
            -1.075204610824585,
            -0.06638599187135696,
            -0.04077336564660072,
            -0.3165336847305298,
            -0.043611522763967514,
            -0.019358200952410698,
            -0.2236538827419281,
            -0.10390381515026093,
            -0.2390550971031189,
            -0.6728515625,
            -0.25623390078544617,
            -0.5242090821266174,
            0.2522832155227661,
            0.49796992540359497,
            -0.5888413190841675,
            -0.22335076332092285,
            0.5342965126037598,
            -0.5028719902038574,
            -0.3133547008037567,
            0.07617524266242981,
            -0.22992587089538574,
            -0.6754976511001587,
            0.09926047921180725,
            -0.084675133228302,
            -0.195838063955307,
            0.1530732363462448,
            -0.46107667684555054,
            -0.2360803633928299,
            0.09355223178863525,
            0.935222864151001,
            -0.4715196192264557,
            -0.07502495497465134,
            -0.391929566860199,
            -0.3025265038013458,
            0.4316534399986267,
            -0.11899211257696152,
            0.026207581162452698,
            -1.1676517724990845,
            -0.2453204244375229,
            -0.0851411297917366,
            -0.05614357069134712,
            0.26516035199165344,
            0.29247409105300903,
            -0.3275826573371887,
            -0.015268106944859028,
            -0.0018531171372160316,
            -0.030664343386888504,
            -0.39400985836982727,
            0.2893141210079193,
            0.007250568829476833,
            -0.0547681525349617,
            -0.4749782681465149,
            -0.478865385055542
          ],
          [
            -0.0390443429350853,
            -1.7029041051864624,
            -0.4946703612804413,
            -0.5336820483207703,
            -0.4106470048427582,
            0.09024074673652649,
            0.23562473058700562,
            0.038645993918180466,
            0.898931622505188,
            0.10708228498697281,
            0.04790082946419716,
            -0.9355806708335876,
            -0.03022795543074608,
            -1.0049444437026978,
            -0.4917719066143036,
            -0.28954455256462097,
            0.5123400688171387,
            -0.16721291840076447,
            0.012882433831691742,
            0.4992813169956207,
            -0.4987514317035675,
            0.7643770575523376,
            0.4060582220554352,
            -0.3715454936027527,
            -0.5605809688568115,
            -0.2564225494861603,
            0.47058242559432983,
            0.35651689767837524,
            0.6531280279159546,
            0.05355912446975708,
            -0.19491787254810333,
            -0.6418448090553284,
            -2.1058719158172607,
            0.10749608278274536,
            0.08226316422224045,
            0.31735435128211975,
            -0.311609148979187,
            0.0689183846116066,
            0.24755056202411652,
            0.12325943261384964,
            -0.26157668232917786,
            -1.757951259613037,
            -0.3638533055782318,
            -0.1725350022315979,
            -0.6724407076835632,
            -0.8754557371139526,
            -0.5017750859260559,
            -0.15718688070774078,
            0.14661870896816254,
            -0.2474759966135025,
            0.04999019205570221,
            -0.49105939269065857,
            0.005861242767423391,
            -0.02274651639163494,
            0.032968200743198395,
            0.18825024366378784,
            -0.29748213291168213,
            -0.47901424765586853,
            -0.3094843626022339,
            0.15880078077316284,
            0.21466955542564392,
            -0.6827053427696228,
            -0.428580641746521,
            -0.47235551476478577
          ],
          [
            -0.04224980250000954,
            -0.4030551314353943,
            0.3085505962371826,
            0.4854319989681244,
            0.12213575839996338,
            0.13395048677921295,
            -0.19259479641914368,
            0.3951123356819153,
            -0.14113564789295197,
            0.0518735833466053,
            0.4886051416397095,
            -0.25146952271461487,
            -0.03687366098165512,
            -0.5293008089065552,
            -0.5258092880249023,
            0.11358702927827835,
            -0.26773905754089355,
            -0.26566392183303833,
            0.5530891418457031,
            0.2805347740650177,
            0.08686347305774689,
            -1.8635406494140625,
            -0.022515717893838882,
            0.6223534941673279,
            -0.2659653127193451,
            -0.08382715284824371,
            0.3191066086292267,
            -0.4678618907928467,
            -0.30193623900413513,
            -0.28706884384155273,
            0.047625284641981125,
            -0.1260458081960678,
            0.14026442170143127,
            -0.02562655322253704,
            -0.07163642346858978,
            0.06154690682888031,
            0.6416274905204773,
            -0.6500685214996338,
            -0.21880792081356049,
            -0.5661613345146179,
            0.5374260544776917,
            -0.07161815464496613,
            -0.08426731079816818,
            -0.08133623749017715,
            -0.39363476634025574,
            -0.20398107171058655,
            -0.884211003780365,
            -1.1090850830078125,
            -1.4247479438781738,
            0.5009605288505554,
            0.11149413883686066,
            0.5869996547698975,
            -0.0139238890260458,
            -0.10963496565818787,
            0.5712743401527405,
            0.6086711287498474,
            0.4155716300010681,
            0.4263432025909424,
            -0.39195340871810913,
            0.796380877494812,
            0.08074932545423508,
            -1.062332272529602,
            0.3515086770057678,
            -0.3233311176300049
          ],
          [
            -0.0579351931810379,
            0.10188260674476624,
            0.38911962509155273,
            0.38901910185813904,
            0.18376454710960388,
            0.251137912273407,
            -0.8648802638053894,
            -0.4039613604545593,
            -0.4281328618526459,
            -0.9413753747940063,
            0.3017890751361847,
            -0.1534704715013504,
            -0.147820383310318,
            0.23820920288562775,
            0.2097349464893341,
            0.06956475228071213,
            -0.14944711327552795,
            -0.02770143933594227,
            0.3778897523880005,
            -0.24257917702198029,
            -0.21381422877311707,
            -0.5505120754241943,
            -0.3512844145298004,
            0.4977194368839264,
            -0.07217703014612198,
            0.45525726675987244,
            -0.25355541706085205,
            0.24014030396938324,
            0.20811976492404938,
            0.18365679681301117,
            -0.112210713326931,
            -0.19844494760036469,
            0.1346960812807083,
            -2.170100212097168,
            0.02690712735056877,
            -0.4633338451385498,
            0.3967267870903015,
            -0.6411841511726379,
            0.2566852867603302,
            -0.0053038704209029675,
            0.3634969890117645,
            0.08967456221580505,
            -0.12938807904720306,
            0.012908006086945534,
            -0.15079741179943085,
            -0.08319304138422012,
            0.09905552119016647,
            -0.7105119228363037,
            -0.7764933109283447,
            0.37908899784088135,
            0.00021614509751088917,
            0.335073858499527,
            0.016658693552017212,
            -0.35134491324424744,
            0.27841514348983765,
            0.4741540253162384,
            0.457080215215683,
            0.5428845286369324,
            0.25317803025245667,
            0.23645782470703125,
            -0.07784523069858551,
            0.08581903576850891,
            0.09300949424505234,
            0.15304327011108398
          ],
          [
            -0.06771167367696762,
            -0.09586557745933533,
            0.23372676968574524,
            0.16543516516685486,
            -0.15292854607105255,
            -0.19944842159748077,
            -0.014426403678953648,
            0.24320484697818756,
            0.24550247192382812,
            0.26425790786743164,
            0.18814176321029663,
            -0.27344614267349243,
            -0.001373287639580667,
            -0.11852864921092987,
            -0.1043519601225853,
            0.1022377535700798,
            0.2606101632118225,
            -0.11596096307039261,
            0.06605319678783417,
            -0.08178394287824631,
            0.0040102447383105755,
            -0.1256209909915924,
            0.3930168151855469,
            -0.0990496426820755,
            0.022403007373213768,
            -0.24194741249084473,
            0.27245739102363586,
            -0.061520133167505264,
            -0.21825820207595825,
            -0.38252443075180054,
            0.06335843354463577,
            -0.06490419059991837,
            -0.11685305833816528,
            0.10607542097568512,
            0.08210992813110352,
            0.11990601569414139,
            0.10182709246873856,
            0.2762019634246826,
            0.1488979011774063,
            -0.40038740634918213,
            0.019732914865016937,
            -0.1948094666004181,
            -0.20431090891361237,
            -0.1897803246974945,
            -0.47432592511177063,
            0.1973010152578354,
            0.07596542686223984,
            -0.3218371570110321,
            0.07518859207630157,
            0.12702462077140808,
            -0.14270393550395966,
            -0.03374417498707771,
            0.09812185168266296,
            -0.01638406328856945,
            -0.19898205995559692,
            0.02243964374065399,
            0.17082688212394714,
            0.021952424198389053,
            -0.16679008305072784,
            0.16660386323928833,
            -0.00397612014785409,
            -0.15592116117477417,
            0.19890299439430237,
            -0.383242666721344
          ],
          [
            -0.14124056696891785,
            0.026107972487807274,
            -0.5605041980743408,
            -0.9832313656806946,
            0.5340442061424255,
            0.28508466482162476,
            -0.3461763262748718,
            -0.5629251003265381,
            -0.19874568283557892,
            -0.6685345768928528,
            0.2352125197649002,
            0.1665443629026413,
            0.11351160705089569,
            0.44710269570350647,
            0.44872424006462097,
            -0.11065658181905746,
            -0.29783371090888977,
            -0.27598029375076294,
            -0.599664032459259,
            -0.03176617994904518,
            -0.2796674072742462,
            0.14640948176383972,
            -0.47413021326065063,
            0.3501824140548706,
            0.30147087574005127,
            0.1954868882894516,
            -0.3792347013950348,
            0.3551182746887207,
            0.3505401015281677,
            0.1850298047065735,
            -0.1046098992228508,
            -0.33390721678733826,
            0.2854554355144501,
            -0.9234101176261902,
            -0.056424178183078766,
            -0.277504026889801,
            0.21183441579341888,
            -0.3729410171508789,
            0.41471827030181885,
            0.2735394537448883,
            0.0469282865524292,
            0.14786995947360992,
            -0.13802050054073334,
            0.3202877938747406,
            0.01759810745716095,
            0.23171482980251312,
            -0.17815877497196198,
            -0.22134478390216827,
            -0.43287336826324463,
            -0.017817022278904915,
            -0.04006902500987053,
            -0.1452322006225586,
            -0.35048553347587585,
            0.12406221032142639,
            -0.08743879944086075,
            0.015017874538898468,
            0.16472844779491425,
            0.04310549795627594,
            0.05627380684018135,
            -0.02918129414319992,
            0.008456594310700893,
            -0.0729580670595169,
            -0.07968643307685852,
            0.09144727885723114
          ],
          [
            -0.0660296157002449,
            -0.32638850808143616,
            0.1176406741142273,
            0.27325960993766785,
            0.09011008590459824,
            0.15864019095897675,
            -0.08273213356733322,
            0.46046745777130127,
            -0.1333141326904297,
            -0.018794892355799675,
            0.08009378612041473,
            -0.5431104898452759,
            -0.03812837600708008,
            -0.40679237246513367,
            -0.23657481372356415,
            0.01640634983778,
            0.3879099488258362,
            -0.187118262052536,
            0.47214826941490173,
            0.1017088070511818,
            0.20238932967185974,
            -0.4855812191963196,
            0.3833684027194977,
            0.6017183065414429,
            -0.03130171820521355,
            -0.6008567214012146,
            0.22342437505722046,
            -0.36319851875305176,
            -0.17386241257190704,
            -0.7664971947669983,
            0.02124885842204094,
            0.0037070245016366243,
            -0.34221628308296204,
            0.25131791830062866,
            -0.10218974202871323,
            -0.0014212634414434433,
            0.016249308362603188,
            -0.3058833181858063,
            -0.1539907157421112,
            -0.361204594373703,
            0.3003535568714142,
            -0.09341498464345932,
            -0.07122833281755447,
            0.09231317788362503,
            -0.35997655987739563,
            -0.16714906692504883,
            -0.5617197155952454,
            -0.4239439070224762,
            -0.390398770570755,
            0.13323310017585754,
            0.010256070643663406,
            0.09381268173456192,
            -0.04113369435071945,
            0.10863768309354782,
            0.35658979415893555,
            0.49045413732528687,
            0.05541292950510979,
            0.010628607124090195,
            -0.7512682676315308,
            0.45646870136260986,
            0.05838434770703316,
            -0.5460531711578369,
            -0.16959869861602783,
            -0.48334524035453796
          ],
          [
            0.03996291756629944,
            0.19794319570064545,
            -0.5520151853561401,
            -0.6771693825721741,
            -0.08201044797897339,
            0.2658020257949829,
            -0.3581376373767853,
            -0.3970499038696289,
            -0.15660785138607025,
            -0.8394145369529724,
            -0.3527025282382965,
            -0.22733339667320251,
            -0.07178200036287308,
            0.08976201713085175,
            -0.5903750061988831,
            0.024485226720571518,
            0.3546566665172577,
            0.039079371839761734,
            -0.2810762822628021,
            0.5030579566955566,
            0.32085683941841125,
            0.3369514048099518,
            0.020662257447838783,
            0.6282792091369629,
            0.10999688506126404,
            -0.7362659573554993,
            -0.041451264172792435,
            -0.17219504714012146,
            0.5027561783790588,
            -0.01435926929116249,
            0.09623724222183228,
            -0.5247984528541565,
            -0.46394601464271545,
            -0.4274854362010956,
            -0.18032951653003693,
            -0.24109667539596558,
            -0.12352863699197769,
            -0.24988284707069397,
            0.06481776386499405,
            -0.07341636717319489,
            0.1631729006767273,
            -0.5317186117172241,
            -0.39110010862350464,
            0.0776093602180481,
            -0.1713300347328186,
            -0.033728644251823425,
            -0.5584264397621155,
            -0.3006226122379303,
            -0.4129040241241455,
            -0.2654378414154053,
            -0.037945665419101715,
            -0.2697082459926605,
            -0.6011792421340942,
            0.09038794040679932,
            0.05757833272218704,
            0.17591553926467896,
            -0.2943420708179474,
            -0.20260080695152283,
            0.3381657004356384,
            0.11409244686365128,
            0.549526035785675,
            -0.015570065937936306,
            -0.0609789714217186,
            0.0426044799387455
          ],
          [
            -0.1509590446949005,
            0.14901696145534515,
            -0.8706238865852356,
            -0.5850876569747925,
            -0.2621578872203827,
            0.10095686465501785,
            -0.5816938877105713,
            -0.08023125678300858,
            -0.8593981266021729,
            -0.6643968224525452,
            0.184081569314003,
            0.009490744210779667,
            0.03195802867412567,
            0.12203032523393631,
            0.1888776421546936,
            -0.4982306659221649,
            -0.014300691895186901,
            -0.15433764457702637,
            -0.4531114995479584,
            0.18312467634677887,
            -1.2342759370803833,
            -0.47442230582237244,
            0.14454907178878784,
            -0.31714335083961487,
            -0.42464640736579895,
            -0.07899049669504166,
            -0.7320288419723511,
            -0.02737901173532009,
            -0.24214677512645721,
            -0.028942415490746498,
            0.11293842643499374,
            0.21618805825710297,
            -0.00030827184673398733,
            0.09953838586807251,
            -0.0617348775267601,
            0.2606929838657379,
            0.3662814199924469,
            0.3405362665653229,
            -0.23259223997592926,
            -0.40876132249832153,
            0.1542152464389801,
            0.03793247416615486,
            -0.2034197896718979,
            0.020343048498034477,
            0.2689577043056488,
            0.6068102121353149,
            0.5211094617843628,
            -0.15907053649425507,
            -1.5756007432937622,
            -0.08990664780139923,
            -0.054636336863040924,
            0.0958661437034607,
            -0.24853189289569855,
            -0.12323816120624542,
            -0.28390106558799744,
            -0.31160515546798706,
            0.12187445908784866,
            0.24687060713768005,
            0.22744959592819214,
            0.2822302281856537,
            -0.1870027333498001,
            0.014644804410636425,
            -0.5626976490020752,
            -0.10040953755378723
          ],
          [
            -0.029877882450819016,
            -0.5048294067382812,
            0.1514996886253357,
            -0.10248223692178726,
            -0.4038145840167999,
            -0.20256657898426056,
            0.18903709948062897,
            0.08187467604875565,
            -0.0231837946921587,
            -0.7505497336387634,
            0.2578573226928711,
            -0.6085813045501709,
            -0.054975032806396484,
            -0.0273832306265831,
            0.01013947930186987,
            -0.47607913613319397,
            0.22248810529708862,
            -0.3246946632862091,
            0.2550722658634186,
            -0.1620837152004242,
            -0.5108550786972046,
            -0.21424439549446106,
            -0.023732131347060204,
            0.11999575793743134,
            -0.18461236357688904,
            -0.3308750092983246,
            -0.12438461184501648,
            0.46172288060188293,
            -0.07432471215724945,
            -0.03655165061354637,
            -0.08655714988708496,
            -0.2576211988925934,
            -0.3518053889274597,
            -0.01920897699892521,
            -0.014780091121792793,
            0.4263095259666443,
            -0.6161837577819824,
            -0.3771946132183075,
            -0.20090055465698242,
            0.06689439713954926,
            0.27239930629730225,
            -0.6239661574363708,
            -1.1209579706192017,
            -0.32140398025512695,
            -0.14097906649112701,
            -0.047583144158124924,
            -0.15484413504600525,
            -0.5631483793258667,
            0.005489416886121035,
            0.3734695017337799,
            -0.19909445941448212,
            -1.0702563524246216,
            -0.4271174371242523,
            -0.29972028732299805,
            -0.08709170669317245,
            0.07741896063089371,
            0.2148081660270691,
            -0.4464830756187439,
            0.5216934680938721,
            0.299976646900177,
            0.15159890055656433,
            -0.32483452558517456,
            0.34827715158462524,
            -0.27495667338371277
          ],
          [
            0.13707298040390015,
            -0.5521473288536072,
            1.0271670818328857,
            -0.4419720768928528,
            -0.4190205931663513,
            -0.34896060824394226,
            -0.10286328196525574,
            0.2732621729373932,
            -0.29679375886917114,
            -0.29694411158561707,
            0.24566951394081116,
            -0.2197990119457245,
            -0.04686601459980011,
            0.3367529809474945,
            0.2764996588230133,
            -0.4736855626106262,
            -0.5732776522636414,
            0.24415244162082672,
            -0.03257788345217705,
            -0.084990955889225,
            -0.2122323364019394,
            -0.8592329025268555,
            -0.692179262638092,
            -0.30117329955101013,
            -0.7601081132888794,
            -0.9440146684646606,
            0.5696882605552673,
            -0.14628350734710693,
            -0.4104688763618469,
            0.3356129229068756,
            -0.07752925902605057,
            0.5137842893600464,
            0.18621249496936798,
            0.19535920023918152,
            -0.09433319419622421,
            -0.8646151423454285,
            0.6812206506729126,
            0.1666712462902069,
            -0.6394047141075134,
            -0.10558036714792252,
            -0.04112799093127251,
            0.05240420252084732,
            0.7670103311538696,
            -0.005192509852349758,
            -0.014255836606025696,
            0.6195210814476013,
            -0.07853007316589355,
            -2.3322436809539795,
            -0.36279088258743286,
            0.048989683389663696,
            -0.04889627546072006,
            -0.7192921042442322,
            -0.3577284812927246,
            0.1810455322265625,
            0.16154393553733826,
            0.3385067284107208,
            -0.31797343492507935,
            -0.2625969350337982,
            -0.2841271162033081,
            0.14498154819011688,
            0.40525010228157043,
            -0.2932828366756439,
            0.4810118079185486,
            -0.5871881246566772
          ],
          [
            0.07659628987312317,
            -1.019881248474121,
            0.29863911867141724,
            -0.319091796875,
            -0.344332754611969,
            -0.24261130392551422,
            0.0029611936770379543,
            0.18085689842700958,
            0.026907823979854584,
            -0.37503358721733093,
            -0.13187728822231293,
            -0.298636257648468,
            0.01213081181049347,
            -0.28279849886894226,
            -0.48547232151031494,
            -0.5694596171379089,
            -0.08379305154085159,
            0.12694776058197021,
            0.4017472267150879,
            0.19954617321491241,
            -0.23143132030963898,
            -0.3635508716106415,
            -0.28267303109169006,
            -0.7375341653823853,
            -0.638789713382721,
            -0.937213659286499,
            -0.15479737520217896,
            0.3379180133342743,
            0.3039795458316803,
            0.1846042424440384,
            0.011790687218308449,
            -0.34255632758140564,
            0.4917364716529846,
            0.35546690225601196,
            0.10237989574670792,
            0.1582932323217392,
            0.2626174986362457,
            0.01064006146043539,
            -0.20961087942123413,
            -0.28471678495407104,
            0.1661035567522049,
            -0.528695285320282,
            0.013670288026332855,
            -0.15680506825447083,
            -0.5392961502075195,
            0.386523574590683,
            -0.15293698012828827,
            -1.4844976663589478,
            0.17096379399299622,
            -0.1425967812538147,
            0.029346726834774017,
            -0.09875563532114029,
            -0.4243813455104828,
            -0.556165874004364,
            0.2626422941684723,
            0.003989217337220907,
            -0.2276606261730194,
            -0.15833042562007904,
            0.07109925150871277,
            0.11629147082567215,
            0.08949422836303711,
            -0.815457284450531,
            0.07480200380086899,
            -0.01010393537580967
          ],
          [
            0.09891819953918457,
            0.16773051023483276,
            -0.2681525647640228,
            -0.3767279088497162,
            -0.0005480322288349271,
            0.414336621761322,
            -0.24104094505310059,
            -0.6279705762863159,
            -0.16440440714359283,
            -0.7172152400016785,
            0.016129085794091225,
            -0.5532037019729614,
            -0.13960306346416473,
            0.12662674486637115,
            0.08090883493423462,
            0.37837836146354675,
            0.779581606388092,
            -0.2341250628232956,
            0.014305582270026207,
            0.5153365731239319,
            0.12139943987131119,
            -0.2005646675825119,
            -0.20143423974514008,
            0.9460763931274414,
            0.30447277426719666,
            -0.08303668349981308,
            -0.6774689555168152,
            -0.17345917224884033,
            0.6242978572845459,
            -0.18655110895633698,
            0.06522513926029205,
            -1.001401424407959,
            -0.46447357535362244,
            -0.6934624910354614,
            0.07538070529699326,
            -0.42833074927330017,
            0.3171759843826294,
            -0.3498486578464508,
            0.2625669538974762,
            -0.12142926454544067,
            0.18879829347133636,
            -0.507193922996521,
            -0.7155815362930298,
            0.370034784078598,
            -0.17320263385772705,
            0.45090535283088684,
            -0.7310080528259277,
            -0.4954058825969696,
            -0.7965085506439209,
            0.10737524926662445,
            0.12254838645458221,
            0.17665942013263702,
            -1.2212482690811157,
            0.45612454414367676,
            0.7505947947502136,
            0.44660884141921997,
            0.1411295086145401,
            0.07152417302131653,
            0.12269355356693268,
            0.19514423608779907,
            0.5444958806037903,
            -0.4670323133468628,
            -0.11399240791797638,
            -0.3078591823577881
          ],
          [
            -0.029858550056815147,
            0.06481387466192245,
            0.008419090881943703,
            0.039862874895334244,
            0.09625794738531113,
            0.10742062330245972,
            -0.5306824445724487,
            -0.1400601714849472,
            -0.1967257410287857,
            -0.5257286429405212,
            0.14410975575447083,
            0.01082437764853239,
            -0.06165758892893791,
            0.036699604243040085,
            0.172515407204628,
            -0.006659640930593014,
            -0.3669767677783966,
            -0.023265337571501732,
            0.17155754566192627,
            -0.059068549424409866,
            0.02932574413716793,
            -0.34143397212028503,
            -0.2787116765975952,
            0.2905076742172241,
            0.11971259862184525,
            0.1833043396472931,
            -0.18249033391475677,
            0.16604849696159363,
            0.2539967894554138,
            -0.20421813428401947,
            0.12478277832269669,
            -0.12748612463474274,
            -0.04337683320045471,
            -1.4252018928527832,
            -0.13119657337665558,
            -0.23296408355236053,
            0.1969340592622757,
            -0.4093576967716217,
            0.11151022464036942,
            -0.024529628455638885,
            0.03057447075843811,
            -0.06788283586502075,
            0.04920769855380058,
            0.09210140258073807,
            -0.20197689533233643,
            0.06063104793429375,
            0.08855791389942169,
            -0.3082510232925415,
            -0.2940804958343506,
            0.1368415206670761,
            -0.1479714810848236,
            0.14058294892311096,
            0.06438525766134262,
            -0.12830747663974762,
            0.08855047076940536,
            0.10115086287260056,
            0.05059657245874405,
            0.14445999264717102,
            0.036014124751091,
            0.16614481806755066,
            0.05608544871211052,
            -0.04743446037173271,
            0.1345510631799698,
            0.08897901326417923
          ],
          [
            0.015584037639200687,
            0.3563697040081024,
            0.28145831823349,
            0.03856460377573967,
            0.0727848932147026,
            0.34798794984817505,
            -0.5592522621154785,
            -0.1939225047826767,
            -0.2216266393661499,
            -0.41424882411956787,
            -0.013472300954163074,
            -0.10486683994531631,
            -0.06911741197109222,
            0.36279046535491943,
            0.25576624274253845,
            0.22035008668899536,
            0.15413086116313934,
            -0.1324024796485901,
            0.34477975964546204,
            -0.0892048105597496,
            -0.12898509204387665,
            -0.3117985427379608,
            -0.2993747591972351,
            0.33720865845680237,
            0.014824963174760342,
            0.2379852682352066,
            -0.3835185170173645,
            -0.09617049247026443,
            0.2567361295223236,
            -0.03196963295340538,
            -0.17535632848739624,
            -0.07219794392585754,
            0.1453908383846283,
            -1.588168740272522,
            -0.10036614537239075,
            -0.4302746057510376,
            0.135841503739357,
            -0.5552874803543091,
            0.20358452200889587,
            -0.06305527687072754,
            0.06065046787261963,
            0.40694111585617065,
            -0.06265603750944138,
            0.1772143393754959,
            -0.039856456220149994,
            0.07966186851263046,
            -0.060823116451501846,
            -0.47352829575538635,
            -0.5995874404907227,
            0.1866806000471115,
            -0.13636352121829987,
            0.12266328930854797,
            -0.11961396038532257,
            -0.18884524703025818,
            0.33593544363975525,
            0.2715429961681366,
            0.29195263981819153,
            0.14248797297477722,
            0.06176597997546196,
            0.10029622912406921,
            -0.18649202585220337,
            -0.2051563411951065,
            0.09835422039031982,
            0.008143894374370575
          ]
        ],
        [
          [
            -0.10357766598463058,
            -0.2779606580734253,
            -0.42167091369628906,
            -0.673092782497406,
            0.2623976171016693,
            -0.0012681561056524515,
            -0.46381744742393494,
            0.18776898086071014,
            -0.5851328372955322,
            0.22096556425094604,
            0.38369473814964294,
            -0.6483001112937927,
            0.050354957580566406,
            -0.502674400806427,
            -0.09398474544286728,
            -0.2144157439470291,
            -0.34546181559562683,
            0.027642790228128433,
            0.10305511951446533,
            0.2491166889667511,
            -0.3084239065647125,
            -0.4779723584651947,
            -0.11194215714931488,
            0.07748280465602875,
            -0.12150931358337402,
            -0.3168274462223053,
            -0.33735665678977966,
            -0.015730177983641624,
            -0.5252359509468079,
            -1.0197392702102661,
            -0.0833386778831482,
            0.11799974739551544,
            0.18893003463745117,
            0.03249012678861618,
            -0.06775672733783722,
            0.14083027839660645,
            -0.06485489755868912,
            -0.20796003937721252,
            -0.4367298185825348,
            -0.07420756667852402,
            -0.26343661546707153,
            -0.03163740038871765,
            -0.4405065178871155,
            -0.731928825378418,
            -0.21697045862674713,
            -1.1459805965423584,
            -0.23547272384166718,
            -0.6719093322753906,
            -0.33194881677627563,
            -0.2397506684064865,
            0.07705070823431015,
            -0.3048948645591736,
            -0.0023353176657110453,
            -0.11546114087104797,
            -0.017659449949860573,
            0.46747633814811707,
            -0.18678683042526245,
            0.0826767235994339,
            -0.25105956196784973,
            0.16537274420261383,
            -0.45361608266830444,
            0.11859456449747086,
            -0.7079029083251953,
            -0.6393966674804688
          ],
          [
            0.09508629888296127,
            -0.03413265570998192,
            -0.2719537019729614,
            -1.8603639602661133,
            -0.28469735383987427,
            0.48235371708869934,
            -0.3001077175140381,
            -1.002460241317749,
            -0.022422179579734802,
            0.04786215350031853,
            -0.148951917886734,
            -0.054083291441202164,
            -0.11666315048933029,
            0.01390027068555355,
            -0.1439366489648819,
            -1.0433673858642578,
            0.6312363147735596,
            -0.3288918137550354,
            -0.15257669985294342,
            0.6043650507926941,
            0.29253318905830383,
            0.3971574306488037,
            -0.9405009150505066,
            -0.07666609436273575,
            -0.17558641731739044,
            -0.6296087503433228,
            -0.6053124070167542,
            0.08398562669754028,
            -0.09207304567098618,
            -0.5966832637786865,
            -0.0543803907930851,
            -0.923683762550354,
            0.3047049641609192,
            -0.8464319705963135,
            0.07040893286466599,
            0.32971858978271484,
            -0.43198078870773315,
            -0.6176210045814514,
            0.18049366772174835,
            0.3511268198490143,
            -0.3316715955734253,
            -0.23893316090106964,
            -0.025199944153428078,
            -0.21831820905208588,
            -0.003753416007384658,
            -0.0231991708278656,
            0.2549535632133484,
            -0.3554359972476959,
            0.3689573109149933,
            -0.5073994994163513,
            -0.10984663665294647,
            -0.41074681282043457,
            -0.21563197672367096,
            0.38290637731552124,
            0.01672857441008091,
            -0.08013899624347687,
            -0.7547494173049927,
            -0.19641080498695374,
            -0.14309924840927124,
            0.3305228054523468,
            0.42334553599357605,
            0.14588861167430878,
            -0.2073528915643692,
            -0.06843829900026321
          ],
          [
            0.07712112367153168,
            -0.07861530035734177,
            -0.10501543432474136,
            -0.099061518907547,
            -0.06422939151525497,
            -0.02305729128420353,
            -0.14155562222003937,
            0.06323482096195221,
            0.09762699156999588,
            0.013183345086872578,
            -0.026580587029457092,
            0.10346688330173492,
            0.06932303309440613,
            0.09839966148138046,
            -0.07105784118175507,
            0.05797071382403374,
            -0.0043463315814733505,
            -0.1072346493601799,
            0.008757153525948524,
            0.10466578602790833,
            0.12179054319858551,
            -0.02968291938304901,
            0.10182254016399384,
            0.06147788092494011,
            -0.14151139557361603,
            0.10925785452127457,
            0.1634911596775055,
            -0.006608796305954456,
            -0.019421005621552467,
            0.061511844396591187,
            0.13704727590084076,
            0.0430428683757782,
            0.11499316245317459,
            0.07622555643320084,
            0.055082038044929504,
            -0.05891457200050354,
            -0.1088176965713501,
            0.027192695066332817,
            0.1071261316537857,
            -0.14278806746006012,
            -0.0867098867893219,
            0.007907871156930923,
            -0.1497025191783905,
            -0.1016811728477478,
            -0.11626168340444565,
            -0.022989505901932716,
            0.1110958456993103,
            -0.08532582223415375,
            -0.04691256210207939,
            -0.11317083239555359,
            -0.015466425567865372,
            0.013491904363036156,
            0.029455779120326042,
            -0.11237543076276779,
            -0.13181188702583313,
            0.1388252079486847,
            -4.663801519200206e-05,
            0.03981584683060646,
            -0.061087097972631454,
            -0.03657015413045883,
            0.056581832468509674,
            -0.029491372406482697,
            0.06660903990268707,
            -0.09440094977617264
          ],
          [
            0.037076327949762344,
            -0.26008984446525574,
            -0.5569373369216919,
            0.0001370179234072566,
            0.04142376780509949,
            0.1939382702112198,
            0.30580925941467285,
            0.2917903959751129,
            0.25816360116004944,
            -0.18700914084911346,
            0.2649749219417572,
            0.18795907497406006,
            -0.17761877179145813,
            -0.951644241809845,
            -1.1819888353347778,
            -0.08494425565004349,
            -0.12341203540563583,
            -0.004648520145565271,
            0.3684491217136383,
            0.017163898795843124,
            0.3492285907268524,
            -0.18119265139102936,
            -0.16047435998916626,
            0.4298528730869293,
            -0.24147455394268036,
            -0.6624180674552917,
            0.17132380604743958,
            -0.5037633180618286,
            -0.044831711798906326,
            0.10710166394710541,
            -0.010044779628515244,
            -0.03774416446685791,
            -0.42564189434051514,
            0.6181869506835938,
            -0.001743202330544591,
            -0.09330227226018906,
            -0.3907873332500458,
            0.01112100575119257,
            -0.5248920917510986,
            -0.06642022728919983,
            0.49024733901023865,
            -0.0718722939491272,
            0.10960759222507477,
            -0.627500593662262,
            0.06670678406953812,
            -1.4758226871490479,
            0.17511636018753052,
            -0.0629085823893547,
            0.11859048902988434,
            -0.18871310353279114,
            -0.11561053991317749,
            -0.13980577886104584,
            -0.5660058259963989,
            -0.7524142861366272,
            -0.018076905980706215,
            0.2661975026130676,
            0.33522841334342957,
            0.20526617765426636,
            0.03480551764369011,
            0.26160693168640137,
            0.02940644882619381,
            0.21915192902088165,
            -0.6517514586448669,
            -0.06388746947050095
          ],
          [
            -0.12904146313667297,
            0.011709298007190228,
            -0.13766035437583923,
            -0.2828623056411743,
            -0.07889281213283539,
            0.1650286167860031,
            -0.07691959291696548,
            0.013670301996171474,
            0.023226212710142136,
            -0.0706544890999794,
            -0.12199217826128006,
            0.06745487451553345,
            -0.118181012570858,
            -0.018609998747706413,
            0.07205060124397278,
            -0.10435055196285248,
            -0.11302540451288223,
            -0.06863880902528763,
            -0.1704881340265274,
            0.32969292998313904,
            -0.04506119713187218,
            0.17992538213729858,
            -0.059746455401182175,
            0.11728764325380325,
            0.08781787753105164,
            -0.14978529512882233,
            -0.06971028447151184,
            0.03666205704212189,
            0.08880548179149628,
            0.015403617173433304,
            0.02378065139055252,
            -0.0549684576690197,
            -0.050626493990421295,
            -0.24964453279972076,
            -0.1116839349269867,
            -0.2152566760778427,
            -0.18045322597026825,
            0.053423527628183365,
            0.24001210927963257,
            -0.15242566168308258,
            -0.057371556758880615,
            0.014955674298107624,
            0.08814235031604767,
            -0.033586397767066956,
            0.07628044486045837,
            -0.007490186486393213,
            -0.29203730821609497,
            -0.11694101989269257,
            -0.1445777863264084,
            0.014566352590918541,
            0.053938716650009155,
            -0.13514503836631775,
            -0.08183082938194275,
            0.20703469216823578,
            -0.1229071244597435,
            -0.23315151035785675,
            -0.2768399119377136,
            -0.17069001495838165,
            -0.07303644716739655,
            -0.03828601911664009,
            -0.046891044825315475,
            -0.16553032398223877,
            -0.12287100404500961,
            -0.026926618069410324
          ],
          [
            -0.1814248412847519,
            -0.275701642036438,
            -0.15056994557380676,
            0.018449468538165092,
            0.3469710350036621,
            0.3498472571372986,
            0.22525733709335327,
            -0.19248799979686737,
            0.17875736951828003,
            -0.24197867512702942,
            0.10293223708868027,
            -0.018568873405456543,
            -0.10077936947345734,
            -0.9501560926437378,
            -0.10928557068109512,
            0.06682198494672775,
            0.15263976156711578,
            -0.3094480633735657,
            0.7113526463508606,
            0.019518112763762474,
            0.6239050626754761,
            0.01568075641989708,
            -0.10092199593782425,
            0.4238315224647522,
            0.17225001752376556,
            -0.35073408484458923,
            0.11546266824007034,
            -0.06706051528453827,
            0.001444264897145331,
            -0.952233076095581,
            -0.03766683116555214,
            -0.09262436628341675,
            -0.5711695551872253,
            0.6685152053833008,
            0.11895811557769775,
            -0.5710775256156921,
            -0.11050848662853241,
            -0.30949005484580994,
            -0.17012852430343628,
            0.1606699824333191,
            0.49398273229599,
            0.06342290341854095,
            0.35438159108161926,
            -0.3005935549736023,
            -0.10995388776063919,
            -1.1612354516983032,
            0.20196516811847687,
            -0.9067138433456421,
            -0.21697898209095,
            -0.7296903729438782,
            -0.022935321554541588,
            0.04026481509208679,
            -0.25930818915367126,
            -0.2502909004688263,
            0.3627728521823883,
            0.3096696138381958,
            0.022812094539403915,
            -0.017250243574380875,
            0.3251832127571106,
            -0.09960156679153442,
            0.19549424946308136,
            0.32869935035705566,
            -0.23737017810344696,
            0.09778300672769547
          ],
          [
            0.035701923072338104,
            -0.4998915493488312,
            -0.290067195892334,
            -0.2642044425010681,
            -0.08228165656328201,
            -0.15443311631679535,
            0.07338479161262512,
            0.09532827138900757,
            -0.034193336963653564,
            -0.3763776123523712,
            0.2707640826702118,
            0.009550605900585651,
            0.00929716695100069,
            -0.25487491488456726,
            0.03345867618918419,
            -0.27970510721206665,
            -0.14837969839572906,
            -0.11017396301031113,
            -0.09369293600320816,
            0.19687455892562866,
            -0.11481102555990219,
            0.04662327468395233,
            -0.08391084522008896,
            0.21656061708927155,
            -0.019158251583576202,
            0.07623405754566193,
            -0.11042187362909317,
            -0.06139427796006203,
            -0.03695927560329437,
            -0.05606536194682121,
            -0.15703673660755157,
            -0.0015488401986658573,
            0.0420350544154644,
            0.0554293617606163,
            -0.08042198419570923,
            -0.2626291811466217,
            -0.02058330550789833,
            -0.1608583927154541,
            -0.3198431432247162,
            -0.268780916929245,
            0.09874045848846436,
            0.05019070953130722,
            0.01786310225725174,
            -0.3628949820995331,
            -0.15316128730773926,
            -0.3475295603275299,
            -0.07286392152309418,
            -0.06853096187114716,
            -0.052896689623594284,
            -0.026233330368995667,
            -0.03950587660074234,
            0.02474001608788967,
            -0.049657296389341354,
            -0.3539375066757202,
            -0.5820753574371338,
            -0.04548770189285278,
            0.0589110441505909,
            0.15851446986198425,
            0.08449365943670273,
            0.07906579971313477,
            -0.11588223278522491,
            0.006779990158975124,
            -0.4570663869380951,
            0.01819739304482937
          ],
          [
            -0.02093813195824623,
            -0.41312894225120544,
            0.17085203528404236,
            -0.4059491455554962,
            0.16057077050209045,
            0.2769549489021301,
            0.13441573083400726,
            0.4679029583930969,
            -0.1114468201994896,
            0.2195739895105362,
            0.13783125579357147,
            -0.5582841634750366,
            -0.08367736637592316,
            -0.6350770592689514,
            -0.6784957051277161,
            -0.5802760124206543,
            -0.15788663923740387,
            -0.1026250496506691,
            0.3274802565574646,
            0.3664732575416565,
            -0.10962946712970734,
            -0.36771130561828613,
            -0.09357906877994537,
            -0.07764431089162827,
            0.14861717820167542,
            -0.2509613633155823,
            0.12163304537534714,
            -0.12458758056163788,
            -0.49926090240478516,
            -1.2219963073730469,
            -0.02063763327896595,
            -0.03774937614798546,
            -0.3686535954475403,
            -0.05437405779957771,
            -0.13912780582904816,
            0.1269948035478592,
            0.11967577785253525,
            -0.16702808439731598,
            0.2120538055896759,
            0.2655470669269562,
            -0.22982633113861084,
            -0.5412198901176453,
            -1.5007364749908447,
            -0.020299075171351433,
            -0.3817080855369568,
            -0.6367300152778625,
            -0.5915490984916687,
            -0.7026554346084595,
            0.1302708387374878,
            -0.13406036794185638,
            -0.12026423215866089,
            -0.18734054267406464,
            0.058074939996004105,
            0.20611277222633362,
            0.38604965806007385,
            0.30860257148742676,
            -0.14230850338935852,
            -0.03462022915482521,
            -0.19884639978408813,
            -0.2656918168067932,
            -0.41741079092025757,
            0.15824924409389496,
            -0.610536515712738,
            -0.4209619462490082
          ],
          [
            0.03872889280319214,
            0.2380060851573944,
            -0.2945164144039154,
            0.12110251188278198,
            0.044469203799963,
            0.07686390727758408,
            -0.05745992064476013,
            -0.24748289585113525,
            -0.11633163690567017,
            -0.233206644654274,
            0.41205087304115295,
            0.4493404030799866,
            -0.17444923520088196,
            -0.44812068343162537,
            -0.32409048080444336,
            0.017484471201896667,
            -0.14127326011657715,
            0.07819414138793945,
            0.15909209847450256,
            0.0687493309378624,
            0.07164306938648224,
            -0.3241941034793854,
            -0.2878473699092865,
            0.3760865330696106,
            -0.13684427738189697,
            -0.2775072455406189,
            -0.1950872391462326,
            -0.5463104844093323,
            -0.009376836009323597,
            0.08432264626026154,
            -0.03653757646679878,
            0.09542485326528549,
            -0.18450918793678284,
            0.27525195479393005,
            -0.05288175866007805,
            -0.12745988368988037,
            -0.3715027868747711,
            -0.06281554698944092,
            -0.19565267860889435,
            0.014107179827988148,
            0.538101851940155,
            -0.25521320104599,
            0.27242663502693176,
            -0.28223490715026855,
            0.5222213268280029,
            -0.7663288116455078,
            0.2494807243347168,
            -0.22575625777244568,
            -0.03621019050478935,
            -0.36638447642326355,
            -0.07369757443666458,
            -0.1911083310842514,
            -0.541986346244812,
            -0.5525046586990356,
            0.04257414862513542,
            0.29560530185699463,
            0.010188094340264797,
            0.0037994123995304108,
            0.327054500579834,
            -0.15866193175315857,
            -0.08224225044250488,
            0.0344478003680706,
            -0.10077251493930817,
            0.30976682901382446
          ],
          [
            0.08240093290805817,
            -0.22307367622852325,
            -0.21460728347301483,
            -0.06092960759997368,
            0.3321942985057831,
            0.4755078852176666,
            0.14797726273536682,
            -0.31615251302719116,
            0.222273588180542,
            -0.1974746286869049,
            0.08082395792007446,
            -0.15486520528793335,
            0.021234558895230293,
            -1.2894699573516846,
            -0.058613166213035583,
            0.22835564613342285,
            -0.0669882521033287,
            -0.2418372482061386,
            0.5881255269050598,
            0.20742835104465485,
            0.46111956238746643,
            0.009768509306013584,
            -0.1878405660390854,
            0.317741334438324,
            0.31684610247612,
            -0.18460533022880554,
            -0.03622792661190033,
            0.11441382765769958,
            -0.1814889758825302,
            -1.1043221950531006,
            -0.06033831462264061,
            -0.04916362836956978,
            -0.9715642333030701,
            0.736533522605896,
            0.043761514127254486,
            -0.6177205443382263,
            -0.18918927013874054,
            -0.3881959915161133,
            -0.39310935139656067,
            0.1708279550075531,
            0.29163292050361633,
            -0.0897243469953537,
            0.305704802274704,
            -0.6123196482658386,
            0.058372605592012405,
            -1.1897621154785156,
            0.32016274333000183,
            -0.7423426508903503,
            -0.22687619924545288,
            -0.8822945356369019,
            -0.0548396036028862,
            -0.0942172110080719,
            -0.43574395775794983,
            -0.12246911227703094,
            0.2562028765678406,
            0.3095191419124603,
            -0.0014275704743340611,
            0.011998580768704414,
            0.5547804832458496,
            -0.2363983690738678,
            0.3168298602104187,
            0.3656812310218811,
            -0.6006602048873901,
            0.12761029601097107
          ],
          [
            -0.04950150102376938,
            -0.6157038807868958,
            -0.6031910181045532,
            -0.09826113283634186,
            0.27844253182411194,
            0.01146900374442339,
            0.2962300479412079,
            0.19274523854255676,
            0.2578192353248596,
            -0.4714161455631256,
            0.032241325825452805,
            0.06666455417871475,
            0.08028503507375717,
            -0.19375620782375336,
            -0.6261956095695496,
            -0.05720743536949158,
            -0.023032700642943382,
            -0.04760010540485382,
            0.2733825445175171,
            -0.09780223667621613,
            0.16263408958911896,
            -0.0826793760061264,
            -0.2561046779155731,
            0.28028184175491333,
            -0.17341823875904083,
            -0.4788561463356018,
            0.03831111267209053,
            0.1450003832578659,
            -0.2046322077512741,
            0.0734497532248497,
            -0.07061002403497696,
            -0.25032925605773926,
            -0.26453661918640137,
            0.6072953939437866,
            -0.10206650197505951,
            -0.14947907626628876,
            -0.5740985870361328,
            -0.2204289734363556,
            -0.14909489452838898,
            -0.24997569620609283,
            0.4152719974517822,
            0.22758899629116058,
            0.6011725068092346,
            -0.09615844488143921,
            0.1691911369562149,
            -0.9311343431472778,
            0.3083827495574951,
            -0.305277943611145,
            0.019588470458984375,
            -0.380423903465271,
            0.01274755597114563,
            -0.06361246109008789,
            -0.24303333461284637,
            -0.6889222264289856,
            -0.25254586338996887,
            0.00444364920258522,
            -0.007054467685520649,
            0.3042212426662445,
            0.02051883190870285,
            0.037730343639850616,
            -0.2908083498477936,
            0.21074306964874268,
            -0.5892382264137268,
            -0.12347804754972458
          ],
          [
            0.13645654916763306,
            -0.5282599925994873,
            -0.46133819222450256,
            -0.18898160755634308,
            -0.4510999321937561,
            -0.46216920018196106,
            -0.08063928037881851,
            -0.2867993116378784,
            -0.3895938992500305,
            -0.3661848306655884,
            -0.020981738343834877,
            0.006836356595158577,
            -0.11666693538427353,
            0.4341559410095215,
            0.4043998420238495,
            0.9115391373634338,
            -0.4879342317581177,
            0.2914283573627472,
            -0.2590200901031494,
            -0.5648676156997681,
            -0.10414651036262512,
            -0.49310967326164246,
            -0.3236856162548065,
            0.2844758927822113,
            0.5137953758239746,
            0.12160255759954453,
            0.279990017414093,
            -0.22189153730869293,
            0.0731893852353096,
            -0.00761270010843873,
            -0.1709194779396057,
            -0.04653928801417351,
            -0.9717200994491577,
            0.40057703852653503,
            0.07496464997529984,
